tree
version=v3
num_class=1
num_tree_per_iteration=1
label_index=0
max_feature_idx=10
objective=binary sigmoid:1
feature_names=age gender height weight ap_hi ap_lo smoke alco active diff bmi
feature_infos=[30:65] [0:1] [120:207] [32:180] [70:240] [45:182] [0:1] [0:1] [0:1] [5:140] [15.012197410395947:49.999999999999993]
tree_sizes=650 653 651 648 652 654 654 651 657 654 655 655 657 658 653 655 657 656 656 657 656 661 657 655 661 655 663 662 657 667 658 660 653 661 665 661 658 657 663 661 664 661 663 662 667 658 657 664 659 638 665 662 657 661 661 660 660 652 662 666 667 662 660 657 660 657 664 661 661 652 661 659 661 658 656 661 658 663 660 648 647 649 659 635 630 651 659 658 663 658 653 659 654 661 657 659 629 640 663 652

Tree=0
num_leaves=5
num_cat=0
split_feature=4 0 4 0
split_gain=12759.5 1636.81 1395.26 293.375
threshold=129.50000000000003 54.500000000000007 138.50000000000003 60.500000000000007
decision_type=2 2 2 2
left_child=1 -1 -2 -3
right_child=2 3 -4 -5
leaf_value=-0.12582478570119554 0.01833165890834421 -0.060759028292789966 0.11414915647443732 -0.00079460120973158174
leaf_weight=6226.4375022500753 2292.2008870542049 2845.1287346184254 4592.4007303118706 1133.8520418405533
leaf_count=24909 9170 11382 18372 4536
internal_value=0 -0.709614 1.05174 -0.207406
internal_weight=0 10205.4 6884.6 3978.98
internal_count=68369 40827 27542 15918
shrinkage=1


Tree=1
num_leaves=5
num_cat=0
split_feature=4 0 4 0
split_gain=10362.9 1336.34 1139.02 275.039
threshold=129.50000000000003 54.500000000000007 138.50000000000003 45.500000000000007
decision_type=2 2 2 2
left_child=1 3 -2 -1
right_child=2 -3 -4 -5
leaf_value=-0.12405779416217054 0.037064902557236129 -0.018670679232982323 0.12370292338782929 -0.078267505075928306
leaf_weight=1988.6187044084072 2292.3074690997601 3976.8753291964531 4578.0708205103874 4214.0488773733377
leaf_count=7986 9170 15918 18372 16923
internal_value=0 -0.640408 0.948724 -0.930549
internal_weight=0 10179.5 6870.38 6202.67
internal_count=68369 40827 27542 24909
shrinkage=0.1


Tree=2
num_leaves=5
num_cat=0
split_feature=4 0 4 0
split_gain=8459.03 1107.3 948.211 317.999
threshold=129.50000000000003 52.500000000000007 138.50000000000003 60.500000000000007
decision_type=2 2 2 2
left_child=1 -1 -2 -3
right_child=2 3 -4 -5
leaf_value=-0.090947781705893849 0.033387334769190702 -0.038224478499247434 0.11261516564854401 0.021714929708285011
leaf_weight=5078.6262343525887 2290.7420794665813 3915.0435208976269 4528.6470864415169 1133.8925968408585
leaf_count=20568 9170 15723 18372 4536
internal_value=0 -0.57968 0.860754 -0.246955
internal_weight=0 10127.6 6819.39 5048.94
internal_count=68369 40827 27542 20259
shrinkage=0.1


Tree=3
num_leaves=5
num_cat=0
split_feature=4 0 4 0
split_gain=6928.42 933.591 800.39 222.775
threshold=129.50000000000003 54.500000000000007 138.50000000000003 44.500000000000007
decision_type=2 2 2 2
left_child=1 3 -2 -1
right_child=2 -3 -4 -5
leaf_value=-0.10684667025426418 0.030091186853296949 -0.014724731257120319 0.10312820973872959 -0.06442823564222426
leaf_weight=1815.0269966125488 2287.988163381815 3969.67404037714 4454.8014015555382 4272.0984095335007
leaf_count=7473 9170 15918 18372 17436
internal_value=0 -0.525694 0.784176 -0.771772
internal_weight=0 10056.8 6742.79 6087.13
internal_count=68369 40827 27542 24909
shrinkage=0.1


Tree=4
num_leaves=5
num_cat=0
split_feature=4 0 4 0
split_gain=5689.88 786.216 682.158 246.405
threshold=129.50000000000003 52.500000000000007 138.50000000000003 60.500000000000007
decision_type=2 2 2 2
left_child=1 -1 -2 -3
right_child=2 3 -4 -5
leaf_value=-0.076064485573890561 0.027130697142841432 -0.031770603444853544 0.094841597927818266 0.02101666648751626
leaf_weight=4946.8446972817183 2284.4199877977371 3893.1865886896849 4364.6202108263969 1133.9558626413345
leaf_count=20568 9170 15723 18372 4536
internal_value=0 -0.477502 0.716496 -0.19795
internal_weight=0 9973.99 6649.04 5027.14
internal_count=68369 40827 27542 20259
shrinkage=0.1


Tree=5
num_leaves=5
num_cat=0
split_feature=4 0 4 0
split_gain=4679.93 665.901 585.145 240.381
threshold=129.50000000000003 51.500000000000007 138.50000000000003 59.500000000000007
decision_type=2 2 2 2
left_child=1 -1 -2 -3
right_child=2 3 -4 -5
leaf_value=-0.074117815081584326 0.024467519794559661 -0.035162163426366237 0.087481112373494027 0.008728707121085583
leaf_weight=4120.7836098968983 2280.3255975246429 3956.7064667344093 4264.2295342683792 1805.4459807872772
leaf_count=17436 9170 16151 18372 7240
internal_value=0 -0.434053 0.655959 -0.213578
internal_weight=0 9882.94 6544.56 5762.15
internal_count=68369 40827 27542 23391
shrinkage=0.1


Tree=6
num_leaves=5
num_cat=0
split_feature=4 0 4 4
split_gain=3853.44 567.317 505.088 217.731
threshold=129.50000000000003 54.500000000000007 134.50000000000003 119.50000000000001
decision_type=2 2 2 2
left_child=1 3 -2 -1
right_child=2 -3 -4 -5
leaf_value=-0.085611659019093039 0.021217934988455422 -0.010123235815800734 0.080444115335809252 -0.044776453436921666
leaf_weight=2061.5764702707529 2214.3729893267155 3953.945475757122 4219.8016891479492 3772.9453693777323
leaf_count=8827 8922 15918 18620 16082
internal_value=0 -0.394763 0.601305 -0.592979
internal_weight=0 9788.47 6434.17 5834.52
internal_count=68369 40827 27542 24909
shrinkage=0.1


Tree=7
num_leaves=5
num_cat=0
split_feature=4 0 4 0
split_gain=3175.02 498.263 436.571 185.108
threshold=129.50000000000003 51.500000000000007 138.50000000000003 60.500000000000007
decision_type=2 2 2 2
left_child=1 -1 -2 -3
right_child=2 3 -4 -5
leaf_value=-0.063114537688061093 0.019834365143692259 -0.025891111793462936 0.074852543580346487 0.019059346395094039
leaf_weight=3976.521344974637 2271.1688785851002 4584.711123585701 4050.7115786075592 1133.9855353832245
leaf_count=17436 9170 18855 18372 4536
internal_value=0 -0.359119 0.551568 -0.169168
internal_weight=0 9695.22 6321.88 5718.7
internal_count=68369 40827 27542 23391
shrinkage=0.1


Tree=8
num_leaves=5
num_cat=0
split_feature=4 0 4 4
split_gain=2616.57 423.511 377.003 239.751
threshold=129.50000000000003 57.500000000000007 138.50000000000003 118.50000000000001
decision_type=2 2 2 2
left_child=1 3 -2 -1
right_child=2 -3 -4 -5
leaf_value=-0.072432029730133893 0.017891486251962473 0.00057166424338960962 0.069312739509773125 -0.032534591277723922
leaf_weight=2289.0372265279293 2266.6125696003437 2725.5768863260746 3943.0234453082085 4585.0476324260235
leaf_count=10079 9170 10979 18372 19769
internal_value=0 -0.326721 0.506128 -0.458934
internal_weight=0 9599.66 6209.64 6874.08
internal_count=68369 40827 27542 29848
shrinkage=0.1


Tree=9
num_leaves=5
num_cat=0
split_feature=4 0 4 10
split_gain=2155.98 392.692 326.394 225.895
threshold=129.50000000000003 46.500000000000007 134.50000000000003 30.845346315968914
decision_type=2 2 2 2
left_child=1 -1 -2 -3
right_child=2 3 -4 -5
leaf_value=-0.067064623712026844 0.015438644128267179 -0.026095781839322787 0.063840973982982205 0.022279718130007453
leaf_weight=2174.0372953563929 2201.4065552651882 6203.0857967436314 3898.3426574468613 1133.5249528288841
leaf_count=9990 8922 26090 18620 4747
internal_value=0 -0.297089 0.464414 -0.185722
internal_weight=0 9510.65 6099.75 7336.61
internal_count=68369 40827 27542 30837
shrinkage=0.1


Tree=10
num_leaves=5
num_cat=0
split_feature=4 4 4 0
split_gain=1775.51 346.111 281.626 214.903
threshold=129.50000000000003 118.50000000000001 138.50000000000003 57.500000000000007
decision_type=2 2 2 2
left_child=1 -1 -2 -3
right_child=2 3 -4 -5
leaf_value=-0.056103815136626878 0.014498715690002701 -0.026596547977436925 0.059465724272709145 0.012182980434160676
leaf_weight=2852.3086069822311 2257.5126186907291 4500.3617315292358 3736.3805283308029 2078.0749250054359
leaf_count=12678 9170 19769 18372 8380
internal_value=0 -0.269904 0.425989 -0.142984
internal_weight=0 9430.75 5993.89 6578.44
internal_count=68369 40827 27542 28149
shrinkage=0.1


Tree=11
num_leaves=5
num_cat=0
split_feature=4 0 4 10
split_gain=1461.68 328.091 242.514 203.033
threshold=129.50000000000003 45.500000000000007 134.50000000000003 27.735530695266274
decision_type=2 2 2 2
left_child=1 -1 -2 -3
right_child=2 3 -4 -5
leaf_value=-0.064903832354899521 0.012499874740562454 -0.026548182999641221 0.054695964732664262 0.0086063727822804689
leaf_weight=1656.8202051669359 2193.4079951047897 5341.8425880223513 3699.0109416246414 2353.2830110639334
leaf_count=7986 8922 22861 18620 9980
internal_value=0 -0.24517 0.390576 -0.157572
internal_weight=0 9351.95 5892.42 7695.13
internal_count=68369 40827 27542 32841
shrinkage=0.1


Tree=12
num_leaves=5
num_cat=0
split_feature=4 4 0 10
split_gain=1210.25 406.033 263.333 181.368
threshold=134.50000000000003 118.50000000000001 59.500000000000007 27.549614887277233
decision_type=2 2 2 2
left_child=1 -1 3 -3
right_child=-2 2 -4 -5
leaf_value=-0.049105712835860127 0.050559631598785737 -0.02706007612260275 0.026479117554798228 0.007199644885786183
leaf_weight=2777.2997472286224 3606.7017158269882 4284.5270653963089 2012.6649701595306 2394.780519887805
leaf_count=12678 18620 18731 8122 10218
internal_value=0 -0.158296 -0.0514668 -0.147318
internal_weight=0 11469.3 8691.97 6679.31
internal_count=68369 49749 37071 28949
shrinkage=0.1


Tree=13
num_leaves=5
num_cat=0
split_feature=4 0 4 8
split_gain=1012.55 274.11 170.042 111.624
threshold=129.50000000000003 51.500000000000007 138.50000000000003 1.0000000180025095e-35
decision_type=2 2 2 2
left_child=1 -1 -2 -3
right_child=2 3 -4 -5
leaf_value=-0.041899241804451759 0.011517830078452147 0.021335383228509277 0.047072159444992184 -0.013671996866394183
leaf_weight=3617.3564953505993 2247.9131026118994 1136.1913173049688 3461.1314982175827 4458.1485646367073
leaf_count=17436 9170 4748 18372 18643
internal_value=0 -0.204434 0.331423 -0.0649759
internal_weight=0 9211.7 5709.04 5594.34
internal_count=68369 40827 27542 23391
shrinkage=0.1


Tree=14
num_leaves=5
num_cat=0
split_feature=4 0 10 4
split_gain=832.237 247.682 161.184 150.826
threshold=129.50000000000003 44.500000000000007 30.845346315968914 149.50000000000003
decision_type=2 2 2 2
left_child=1 -1 -3 -2
right_child=3 2 -4 -5
leaf_value=-0.056369604433710779 0.019797018880855076 -0.017574817471704196 0.022223087088801968 0.056253835155533366
leaf_weight=1456.8629389852285 4013.0844745337963 6488.131629884243 1197.693686619401 1610.9746979176998
leaf_count=7473 18785 28269 5085 8757
internal_value=0 -0.185546 -0.113253 0.303218
internal_weight=0 9142.69 7685.83 5624.06
internal_count=68369 40827 33354 27542
shrinkage=0.1


Tree=15
num_leaves=5
num_cat=0
split_feature=4 0 4 10
split_gain=707.763 303.904 231.572 127.237
threshold=134.50000000000003 59.500000000000007 119.50000000000001 27.680199937535757
decision_type=2 2 2 2
left_child=1 2 -1 -4
right_child=-2 -3 3 -5
leaf_value=-0.0482255919653038 0.040220514866096603 0.019262014142331706 -0.021350292095184034 0.0076600189439410341
leaf_weight=2261.9176974743605 3373.1780481338501 2429.1153955459595 4243.8345726579428 2325.5045588463545
leaf_count=10977 18620 9835 18938 9999
internal_value=0 -0.119771 -0.206094 -0.11034
internal_weight=0 11260.4 8831.26 6569.34
internal_count=68369 49749 39914 28937
shrinkage=0.1


Tree=16
num_leaves=5
num_cat=0
split_feature=5 0 4 0
split_gain=600.515 266.526 209.357 130.016
threshold=89.500000000000014 60.500000000000007 119.50000000000001 42.500000000000007
decision_type=2 2 2 2
left_child=1 2 -1 -4
right_child=-2 -3 3 -5
leaf_value=-0.044286550217290166 0.034807505980863761 0.026547710610492464 -0.052616638613144112 -0.0051033793645230592
leaf_weight=2322.5758362561464 3700.2874482423067 1539.7724083214998 634.03584222495556 6301.992487847805
leaf_count=11364 19199 6480 3208 28118
internal_value=0 -0.118556 -0.182834 -0.0951423
internal_weight=0 10798.4 9258.6 6936.03
internal_count=68369 49170 42690 31326
shrinkage=0.1


Tree=17
num_leaves=5
num_cat=0
split_feature=4 0 10 4
split_gain=511.497 235.228 175.103 113.721
threshold=132.50000000000003 42.500000000000007 26.956482670862368 109.50000000000001
decision_type=2 2 2 2
left_child=1 -1 3 -3
right_child=-2 2 -4 -5
leaf_value=-0.055559906976998169 0.03486166752041344 -0.065691694405464213 0.010337359976852064 -0.012467747526715384
leaf_weight=1033.3464849889278 3260.2596269845963 434.24608017504215 4121.9989425241947 5537.9549169391394
leaf_count=5499 18643 2102 17698 24427
internal_value=0 -0.101593 -0.054644 -0.164234
internal_weight=0 11127.5 10094.2 5972.2
internal_count=68369 49726 44227 26529
shrinkage=0.1


Tree=18
num_leaves=5
num_cat=0
split_feature=5 0 3 4
split_gain=431.327 212.872 125.731 91.8126
threshold=89.500000000000014 56.500000000000007 77.500000000000014 118.50000000000001
decision_type=2 2 2 2
left_child=1 2 3 -1
right_child=-2 -3 -4 -5
leaf_value=-0.050314948667492379 0.029944037489215227 0.009163710400024238 0.00016375127858400158 -0.020029783150539462
leaf_weight=1455.0959935933352 3602.4279723763466 3726.2849536091089 2060.344272762537 3435.4281536191702
leaf_count=7652 19199 15801 9608 16109
internal_value=0 -0.100574 -0.204067 -0.29132
internal_weight=0 10677.2 6950.87 4890.52
internal_count=68369 49170 33369 23761
shrinkage=0.1


Tree=19
num_leaves=5
num_cat=0
split_feature=4 10 0 0
split_gain=369.94 193.035 143.013 88.6824
threshold=134.50000000000003 23.328769523402531 59.500000000000007 41.500000000000007
decision_type=2 2 2 2
left_child=1 -1 3 -3
right_child=-2 2 -4 -5
leaf_value=-0.033812254325063323 0.03022776160129971 -0.052954184648465456 0.022058376623483384 -0.0055631946709934358
leaf_weight=2379.3360523283482 3152.262867346406 421.0993590503931 1961.3289795070887 6269.9716690182686
leaf_count=11157 18620 2297 7968 28327
internal_value=0 -0.0860048 -0.0162111 -0.0861657
internal_weight=0 11031.7 8652.4 6691.07
internal_count=68369 49749 38592 30624
shrinkage=0.1


Tree=20
num_leaves=5
num_cat=0
split_feature=5 0 0 4
split_gain=310.53 168.687 138.043 110.281
threshold=89.500000000000014 42.500000000000007 62.500000000000007 119.50000000000001
decision_type=2 2 2 2
left_child=1 -1 3 -3
right_child=-2 2 -4 -5
leaf_value=-0.048877336328216697 0.025753737298843216 -0.028883361936326974 0.035869067845651324 -0.0020619359698836807
leaf_weight=942.35022297501564 3517.05947047472 1981.778356730938 771.44710209965706 6874.4851163178682
leaf_count=5368 19199 9699 3283 30820
internal_value=0 -0.0853655 -0.0454045 -0.0810766
internal_weight=0 10570.1 9627.71 8856.26
internal_count=68369 49170 43802 40519
shrinkage=0.1


Tree=21
num_leaves=5
num_cat=0
split_feature=4 10 0 3
split_gain=266.995 155.188 117.023 58.8311
threshold=138.50000000000003 22.741355133191984 54.500000000000007 82.050000000000011
decision_type=2 2 2 2
left_child=1 -1 3 -3
right_child=-2 2 -4 -5
leaf_value=-0.034872384085299392 0.026409439721759714 -0.018714997986650342 0.0098173876496743528 0.0069236408453889915
leaf_weight=1709.5689471065998 3007.0083064287901 3771.3462638109922 4362.3804258555174 1150.4338448643684
leaf_count=8183 18372 18553 17981 5280
internal_value=0 -0.0720253 -0.0206326 -0.126573
internal_weight=0 10993.7 9284.16 4921.78
internal_count=68369 49997 41814 23833
shrinkage=0.1


Tree=22
num_leaves=5
num_cat=0
split_feature=5 0 0 10
split_gain=222.472 134.44 106.569 96.6781
threshold=89.500000000000014 42.500000000000007 62.500000000000007 32.046011326304829
decision_type=2 2 2 2
left_child=1 -1 3 -3
right_child=-2 2 -4 -5
leaf_value=-0.043896706493394028 0.022061691388855748 -0.011001234883769999 0.03192907959148205 0.019618387874447651
leaf_weight=911.12585660815239 3442.8275641947985 7610.4411642998457 766.26212097704411 1183.5695560723543
leaf_count=5368 19199 35219 3283 5300
internal_value=0 -0.0722973 -0.0368882 -0.0683868
internal_weight=0 10471.4 9560.27 8794.01
internal_count=68369 49170 43802 40519
shrinkage=0.1


Tree=23
num_leaves=5
num_cat=0
split_feature=4 4 0 3
split_gain=203.952 138.924 85.2766 78.7745
threshold=118.50000000000001 149.50000000000003 60.500000000000007 61.750000000000007
decision_type=2 2 2 2
left_child=3 2 -2 -1
right_child=1 -3 -4 -5
leaf_value=-0.054276609507897249 -0.0024620307225263396 0.035445480201395117 0.022690669583986689 -0.014383065178500264
leaf_weight=709.43233373761177 8408.8605488836765 1374.665513381362 1599.7665429860353 1749.8417052924633
leaf_count=3812 39758 8757 7176 8866
internal_value=0 0.0566451 0.0153266 -0.260746
internal_weight=0 11383.3 10008.6 2459.27
internal_count=68369 55691 46934 12678
shrinkage=0.1


Tree=24
num_leaves=5
num_cat=0
split_feature=5 4 8 10
split_gain=175.566 116.813 86.5798 59.0923
threshold=78.500000000000014 149.50000000000003 1.0000000180025095e-35 21.792900166602596
decision_type=2 2 2 2
left_child=3 2 -2 -1
right_child=1 -3 -4 -5
leaf_value=-0.059599021589063508 0.020569066733889512 0.033655167437322935 -0.0028900148777040121 -0.016625197324912671
leaf_weight=379.83418695628643 1963.2686986327171 1305.5438454449177 7813.6283053159714 2314.1761806309223
leaf_count=2062 9240 8515 37008 11544
internal_value=0 0.0558398 0.0179353 -0.228642
internal_weight=0 11082.4 9776.9 2694.01
internal_count=68369 54763 46248 13606
shrinkage=0.1


Tree=25
num_leaves=5
num_cat=0
split_feature=4 4 0 3
split_gain=145.243 95.8042 69.3716 67.8714
threshold=118.50000000000001 149.50000000000003 60.500000000000007 68.700000000000017
decision_type=2 2 2 2
left_child=3 2 -2 -1
right_child=1 -3 -4 -5
leaf_value=-0.038310844765057472 -0.0022081422812490216 0.030081282128573653 0.020524048924184368 -0.0043989421037261139
leaf_weight=1258.5595237463713 8404.9248198121786 1318.262574210763 1591.941574215889 1154.4643713831902
leaf_count=6850 39758 8757 7176 5828
internal_value=0 0.0476414 0.0138555 -0.222442
internal_weight=0 11315.1 9996.87 2413.02
internal_count=68369 55691 46934 12678
shrinkage=0.1


Tree=26
num_leaves=5
num_cat=0
split_feature=5 0 8 10
split_gain=127.202 103.565 87.1908 65.7031
threshold=89.500000000000014 41.500000000000007 1.0000000180025095e-35 21.792900166602596
decision_type=2 2 2 2
left_child=1 -1 -3 -4
right_child=-2 2 3 -5
leaf_value=-0.048891735199654375 0.016978783329958707 0.01564151961056303 -0.036882405033302583 -0.0049250228379435074
leaf_weight=519.40696214139462 3335.8175536245108 1965.1564655601978 709.96029904484749 7140.3392431735992
leaf_count=3225 19199 9099 3556 33290
internal_value=0 -0.0547122 -0.0312631 -0.0786912
internal_weight=0 10334.9 9815.46 7850.3
internal_count=68369 49170 45945 36846
shrinkage=0.1


Tree=27
num_leaves=5
num_cat=0
split_feature=5 4 10 8
split_gain=116.192 73.4535 60.3333 53.8141
threshold=78.500000000000014 149.50000000000003 33.547496893310374 1.0000000180025095e-35
decision_type=2 2 2 2
left_child=-1 2 3 -2
right_child=1 -3 -4 -5
leaf_value=-0.018814235356556568 0.014525927429761843 0.027410780395307085 0.023381580439137212 -0.0052138297678319132
leaf_weight=2641.6184776127338 1720.2630014270544 1242.7953385710716 1120.5585107505322 6898.0936739593744
leaf_count=13606 8090 8515 5336 32822
internal_value=0 0.0453311 0.0157325 -0.0123312
internal_weight=0 10981.7 9738.92 8618.36
internal_count=68369 54763 46248 40912
shrinkage=0.1


Tree=28
num_leaves=5
num_cat=0
split_feature=10 0 4 4
split_gain=105.875 60.6955 47.5246 43.0215
threshold=24.76983131504743 42.500000000000007 109.50000000000001 149.50000000000003
decision_type=2 2 2 2
left_child=1 -1 -3 -2
right_child=3 2 -4 -5
leaf_value=-0.046819521595950889 0.003939846981369813 -0.048498366995928313 -0.0053908223230987136 0.025972165893948199
leaf_weight=453.29028150439262 7800.9752062410116 273.13965068757534 4044.7534862905741 1007.7636924982071
leaf_count=2920 37280 1531 19623 7015
internal_value=0 -0.11986 -0.0822438 0.0650476
internal_weight=0 4771.18 4317.89 8808.74
internal_count=68369 24074 21154 44295
shrinkage=0.1


Tree=29
num_leaves=5
num_cat=0
split_feature=3 4 8 6
split_gain=92.7861 57.6289 74.3331 52.5012
threshold=59.650000000000006 138.50000000000003 1.0000000180025095e-35 1.0000000180025095e-35
decision_type=2 2 2 2
left_child=-1 2 -2 -4
right_child=1 -3 3 -5
leaf_value=-0.023185719820119757 0.016899580965419058 0.016176281628965835 -0.0024470299080620824 -0.031486905322755387
leaf_weight=1527.7351633533835 1913.8051355332136 2585.1880487650633 6831.6634922251105 686.56489372253418
leaf_count=8007 8656 17096 31403 3207
internal_value=0 0.0295392 -0.0064084 -0.0515312
internal_weight=0 12017.2 9432.03 7518.23
internal_count=68369 60362 43266 34610
shrinkage=0.1


Tree=30
num_leaves=5
num_cat=0
split_feature=5 9 0 8
split_gain=83.5583 49.7366 49.2618 46.2352
threshold=78.500000000000014 53.500000000000007 40.500000000000007 1.0000000180025095e-35
decision_type=2 2 2 2
left_child=-1 2 -2 -4
right_child=1 -3 3 -5
leaf_value=-0.016072362800596787 -0.038148974604264779 0.021025739406187429 0.016638574432127046 -0.001031783578913738
leaf_weight=2607.3728870302439 304.4060597717762 1458.2102122306824 1846.7511448413134 7291.9395595043898
leaf_count=13606 1823 9827 8609 34504
internal_value=0 0.0384519 0.0115253 0.0250898
internal_weight=0 10901.3 9443.1 9138.69
internal_count=68369 54763 44936 43113
shrinkage=0.1


Tree=31
num_leaves=5
num_cat=0
split_feature=10 0 10 5
split_gain=78.4173 47.6172 47.3793 44.9997
threshold=23.328769523402531 60.500000000000007 33.666031340795755 89.500000000000014
decision_type=2 2 2 2
left_child=-1 2 3 -2
right_child=1 -3 -4 -5
leaf_value=-0.015865881209155816 -0.0062597082011436843 0.018751022008902135 0.018866744140010567 0.011489895710188059
leaf_weight=2528.3439889028668 6085.4202244505286 1754.5927012562752 1246.6020391881466 1855.8846976459026
leaf_count=13162 29289 8597 6464 10857
internal_value=0 0.0366377 0.00742731 -0.0206889
internal_weight=0 10942.5 9187.91 7941.3
internal_count=68369 55207 46610 40146
shrinkage=0.1


Tree=32
num_leaves=5
num_cat=0
split_feature=4 0 10 0
split_gain=70.7498 54.4879 43.9036 45.0154
threshold=109.50000000000001 42.500000000000007 33.547496893310374 62.500000000000007
decision_type=2 2 2 2
left_child=-1 -2 3 -3
right_child=1 2 -4 -5
leaf_value=-0.032015331869346977 -0.021826778238505158 -0.00077928848149974106 0.01988290794088424 0.02275814633976329
leaf_weight=653.3931326046586 911.53674241155386 9549.7902545779943 1433.4150573760271 883.27703922986984
leaf_count=3752 5656 47215 7480 4266
internal_value=0 0.0164393 0.0347884 0.0118941
internal_weight=0 12778 11866.5 10433.1
internal_count=68369 64617 58961 51481
shrinkage=0.1


Tree=33
num_leaves=5
num_cat=0
split_feature=10 0 5 0
split_gain=66.1398 46.2314 53.3594 43.5374
threshold=21.229229820389854 60.500000000000007 89.500000000000014 41.500000000000007
decision_type=2 2 2 2
left_child=-1 2 3 -2
right_child=1 -3 -4 -5
leaf_value=-0.028907497789721986 -0.035770052050113049 0.015690715250605416 0.011725333659661019 -0.0030798422390367511
leaf_weight=744.40359214693308 430.27487891167402 1990.0550478696823 2539.8894627988338 7697.5940339937806
leaf_count=4054 2839 9728 15036 36712
internal_value=0 0.0170253 -0.00881185 -0.0486253
internal_weight=0 12657.8 10667.8 8127.87
internal_count=68369 64315 54587 39551
shrinkage=0.1


Tree=34
num_leaves=5
num_cat=0
split_feature=3 8 4 6
split_gain=58.814 44.2908 51.4377 48.3164
threshold=55.800000000000004 1.0000000180025095e-35 135.50000000000003 1.0000000180025095e-35
decision_type=2 2 2 2
left_child=-1 -2 3 -3
right_child=1 2 -4 -5
leaf_value=-0.027408706178282883 0.013427041498485968 -0.0025670273951692735 0.01246145525261699 -0.029990125267643854
leaf_weight=736.81313242018223 2531.6576269119978 7269.4525405466557 2116.9883818924427 706.7966320887208
leaf_count=4010 12725 33908 14356 3370
internal_value=0 0.0159789 -0.0134113 -0.0504761
internal_weight=0 12624.9 10093.2 7976.25
internal_count=68369 64359 51634 37278
shrinkage=0.1


Tree=35
num_leaves=5
num_cat=0
split_feature=4 10 4 6
split_gain=53.4795 40.2121 38.7072 46.5474
threshold=109.50000000000001 31.245114898085461 132.50000000000003 1.0000000180025095e-35
decision_type=2 2 2 2
left_child=-1 2 3 -2
right_child=1 -3 -4 -5
leaf_value=-0.028201034079625049 -0.0019778179419708487 0.012809473008249193 0.011442489068349705 -0.0287406540347552
leaf_weight=637.45855022221804 7583.0599585026503 2489.875728815794 1908.4547362774611 712.24976921081543
leaf_count=3752 35402 13024 12791 3400
internal_value=0 0.0141188 -0.0134143 -0.043239
internal_weight=0 12693.6 10203.8 8295.31
internal_count=68369 64617 51593 38802
shrinkage=0.1


Tree=36
num_leaves=5
num_cat=0
split_feature=0 10 0 3
split_gain=47.0041 37.767 35.6785 32.2061
threshold=41.500000000000007 20.230289366720058 62.500000000000007 79.250000000000014
decision_type=2 2 2 2
left_child=-1 -2 3 -3
right_child=1 2 -4 -5
leaf_value=-0.028024141359850808 -0.030744746280312235 -0.002992218987822504 0.020168837763163708 0.0084912116020928116
leaf_weight=570.09236337989569 354.15767338126898 7814.9388111308217 1011.9521007090807 3542.8222353905439
leaf_count=3811 1932 39363 5042 18221
internal_value=0 0.0124836 0.0219754 0.00563335
internal_weight=0 12723.9 12369.7 11357.8
internal_count=68369 64558 62626 57584
shrinkage=0.1


Tree=37
num_leaves=5
num_cat=0
split_feature=4 3 8 4
split_gain=44.303 37.0656 25.2954 26.587
threshold=118.50000000000001 69.65000000000002 1.0000000180025095e-35 135.50000000000003
decision_type=2 2 2 2
left_child=1 -1 -2 -4
right_child=2 -3 3 -5
leaf_value=-0.024471565777977586 0.012143497136517566 0.00081661764279638465 -0.0029456452913918111 0.0098225126651038663
leaf_weight=1228.7735779285431 2220.747349396348 1050.0745931938291 6613.299112200737 2159.9036716967821
leaf_count=7242 11115 5436 29726 14850
internal_value=0 -0.126954 0.0261551 0.00164164
internal_weight=0 2278.85 10994 8773.2
internal_count=68369 12678 55691 44576
shrinkage=0.1


Tree=38
num_leaves=5
num_cat=0
split_feature=3 0 4 7
split_gain=39.192 32.0686 30.5002 33.1456
threshold=55.800000000000004 62.500000000000007 149.50000000000003 1.0000000180025095e-35
decision_type=2 2 2 2
left_child=-1 2 3 -2
right_child=1 -3 -4 -5
leaf_value=-0.022628679087984591 -0.00040176769848152336 0.018691935261037417 0.016457729779192014 -0.025412258837201829
leaf_weight=721.17520733177662 9983.1960788741708 974.10300855338573 1002.7389644086361 558.40359859913588
leaf_count=4010 49176 4900 7484 2799
internal_value=0 0.0129558 -0.00149643 -0.0176382
internal_weight=0 12518.4 11544.3 10541.6
internal_count=68369 64359 59459 51975
shrinkage=0.1


Tree=39
num_leaves=5
num_cat=0
split_feature=0 4 8 10
split_gain=37.2016 30.4804 26.7135 23.8405
threshold=41.500000000000007 103.50000000000001 1.0000000180025095e-35 32.872541057262914
decision_type=2 2 2 2
left_child=-1 -2 -3 -4
right_child=1 2 3 -5
leaf_value=-0.025157438983004696 -0.021871569747199629 0.011580452849333997 -0.002137118598972124 0.012322979065727166
leaf_weight=560.19886799901724 546.66236216574907 2414.3362216800451 8379.7726540714502 1315.8827826231718
leaf_count=3811 3190 12034 42358 6976
internal_value=0 0.0110532 0.0217408 -0.00138629
internal_weight=0 12656.7 12110 9695.66
internal_count=68369 64558 61368 49334
shrinkage=0.1


Tree=40
num_leaves=5
num_cat=0
split_feature=0 4 3 1
split_gain=33.5702 41.2876 31.4237 20.1588
threshold=53.500000000000007 134.50000000000003 59.650000000000006 1.0000000180025095e-35
decision_type=2 2 2 2
left_child=1 2 -1 -2
right_child=3 -3 -4 -5
leaf_value=-0.031795739465814772 -0.0028118847307217459 0.01254039107049908 -0.0066486418593075872 0.0080167160900055049
leaf_weight=576.51028684526682 2556.5216236114502 985.93397690355778 4055.4350460991263 5025.473328217864
leaf_count=3647 12561 6695 21029 24437
internal_value=0 -0.0587287 -0.0986633 0.0432415
internal_weight=0 5617.88 4631.95 7581.99
internal_count=68369 31371 24676 36998
shrinkage=0.1


Tree=41
num_leaves=5
num_cat=0
split_feature=5 0 10 8
split_gain=31.4132 23.0509 17.2641 17.0056
threshold=78.500000000000014 47.500000000000007 20.230289366720058 1.0000000180025095e-35
decision_type=2 2 2 2
left_child=1 -1 -2 -4
right_child=2 -3 3 -5
leaf_value=-0.027021071976886576 -0.024026847871338103 -0.0044197567194733329 0.011034898375560761 0.0009157643942423199
leaf_weight=611.19611478596926 236.77353625744581 1897.1948952451348 2100.4351515993476 8324.5950671881437
leaf_count=4281 1244 9325 10641 42878
internal_value=0 -0.100798 0.0235109 0.0298762
internal_weight=0 2508.39 10661.8 10425
internal_count=68369 13606 54763 53519
shrinkage=0.1


Tree=42
num_leaves=5
num_cat=0
split_feature=10 6 0 4
split_gain=28.2862 30.0902 26.9907 17.4095
threshold=24.568394210023282 1.0000000180025095e-35 42.500000000000007 139.50000000000003
decision_type=2 2 2 2
left_child=1 2 -1 -3
right_child=-2 3 -4 -5
leaf_value=-0.030616381145140273 0.0032373267437654785 -0.043915072934322917 -0.0013406197860887695 0.009674967083617661
leaf_weight=345.15510434657335 8806.3716224506497 305.99812971055508 3634.8979354575276 62.817238360643387
leaf_count=2518 45564 1608 18263 416
internal_value=0 -0.0661672 -0.0398113 -0.339327
internal_weight=0 4348.87 3980.05 368.815
internal_count=68369 22805 20781 2024
shrinkage=0.1


Tree=43
num_leaves=5
num_cat=0
split_feature=0 3 4 1
split_gain=26.6359 30.2887 22.415 19.4971
threshold=59.500000000000007 59.650000000000006 149.50000000000003 1.0000000180025095e-35
decision_type=2 2 2 2
left_child=1 -1 -3 -2
right_child=3 2 -4 -5
leaf_value=-0.01828285773609371 -0.0024742632186482024 -0.0021248088207240635 0.016125586196268315 0.013771801602004806
leaf_weight=1088.8523940518498 1106.4263109266758 8169.3273164257407 728.83126236498356 2049.5039410963655
leaf_count=6338 5447 40964 5560 10060
internal_value=0 -0.0255514 -0.0058923 0.0797928
internal_weight=0 9987.01 8898.16 3155.93
internal_count=68369 52862 46524 15507
shrinkage=0.1


Tree=44
num_leaves=5
num_cat=0
split_feature=4 7 0 8
split_gain=25.4437 22.6555 18.2288 15.3223
threshold=109.50000000000001 1.0000000180025095e-35 40.500000000000007 1.0000000180025095e-35
decision_type=2 2 2 2
left_child=-1 2 -2 -4
right_child=1 -3 3 -5
leaf_value=-0.020042047809325222 -0.019819859599289315 -0.017121388634128192 0.0099579661299543584 0.0008178408843193066
leaf_weight=602.45816911011934 365.53880371898413 651.16519773006439 2320.7984002307057 9180.4409594833851
leaf_count=3752 2504 3468 11648 46997
internal_value=0 0.00944471 0.0196674 0.0269192
internal_weight=0 12517.9 11866.8 11501.2
internal_count=68369 64617 61149 58645
shrinkage=0.1


Tree=45
num_leaves=5
num_cat=0
split_feature=0 3 5 0
split_gain=22.5648 28.5522 24.5491 24.1008
threshold=61.500000000000007 79.250000000000014 89.500000000000014 45.500000000000007
decision_type=2 2 2 2
left_child=1 2 3 -1
right_child=-2 -3 -4 -5
leaf_value=-0.022133858373639501 0.010387937684318053 0.005909928506494245 0.0064375776385618561 -0.0050101076785154771
leaf_weight=989.60709338635206 1792.7102363333106 3419.7248747870326 1489.0622964650393 5419.6472774371505
leaf_count=6738 8983 17883 8836 25929
internal_value=0 -0.0167748 -0.0500367 -0.0771299
internal_weight=0 11318 7898.32 6409.25
internal_count=68369 59386 41503 32667
shrinkage=0.1


Tree=46
num_leaves=5
num_cat=0
split_feature=10 0 3 4
split_gain=21.7802 18.5853 20.2386 25.1258
threshold=20.230289366720058 62.500000000000007 91.500000000000014 122.50000000000001
decision_type=2 2 2 2
left_child=-1 2 -2 -4
right_child=1 -3 3 -5
leaf_value=-0.024078861534114013 -0.0018944870004178442 0.013823457838106177 0.027873728653627635 -8.5349811122304535e-05
leaf_weight=362.63960139453411 10452.127945698798 988.76465895026922 535.01571750640869 742.83048082143068
leaf_count=2152 54306 5042 2395 4474
internal_value=0 0.0067015 -0.00415068 0.114138
internal_weight=0 12718.7 11730 1277.85
internal_count=68369 66217 61175 6869
shrinkage=0.1


Tree=47
num_leaves=5
num_cat=0
split_feature=5 10 9 6
split_gain=19.6715 15.6635 13.3795 17.4334
threshold=78.500000000000014 21.792900166602596 59.500000000000007 1.0000000180025095e-35
decision_type=2 2 2 2
left_child=1 -1 3 -2
right_child=2 -3 -4 -5
leaf_value=-0.029331579033055544 0.0018385922946137459 -0.004861914105881637 0.011363057932188069 -0.013666005133484514
leaf_weight=305.69557375460863 8518.7760332599282 2166.0415480211377 1297.4153923466802 787.91357270628214
leaf_count=2062 41312 11544 9486 3965
internal_value=0 -0.0804962 0.0185119 0.00487795
internal_weight=0 2471.74 10604.1 9306.69
internal_count=68369 13606 54763 45277
shrinkage=0.1


Tree=48
num_leaves=5
num_cat=0
split_feature=0 7 3 3
split_gain=18.5429 16.2397 15.627 15.0743
threshold=40.500000000000007 1.0000000180025095e-35 61.100000000000009 51.250000000000007
decision_type=2 2 2 2
left_child=-1 3 -3 -2
right_child=1 2 -4 -5
leaf_value=-0.020478458350645046 -0.021573776834873624 -0.059416023161157565 -0.0085082050011560557 0.0020966262740247507
leaf_weight=425.44803941994905 270.39655266702175 68.797346137464046 580.25589720904827 11712.921686865389
leaf_count=3059 1553 384 3075 60298
internal_value=0 0.00670686 -0.14651 0.0153058
internal_weight=0 12632.4 649.053 11983.3
internal_count=68369 65310 3459 61851
shrinkage=0.1


Tree=49
num_leaves=5
num_cat=0
split_feature=4 7 3 0
split_gain=17.31 14.7671 13.3891 12.7584
threshold=109.50000000000001 1.0000000180025095e-35 69.65000000000002 56.500000000000007
decision_type=2 2 2 2
left_child=2 3 -1 -2
right_child=1 -3 -4 -5
leaf_value=-0.029504275968152971 -0.00094301778270439911 -0.013847571456762874 0 0.0057975240132178297
leaf_weight=341.18299598991871 7323.6750958636403 648.1556102335453 247.5760510340333 4491.8529135733843
leaf_count=2362 39124 3468 1390 22025
internal_value=0 0.0076194 -0.167395 0.0159361
internal_weight=0 12463.7 588.759 11815.5
internal_count=68369 64617 3752 61149
shrinkage=0.1


Tree=50
num_leaves=5
num_cat=0
split_feature=8 4 3 0
split_gain=16.1166 20.7724 30.7569 12.5262
threshold=1.0000000180025095e-35 126.50000000000001 91.500000000000014 51.500000000000007
decision_type=2 2 2 2
left_child=-1 2 3 -2
right_child=1 -3 -4 -5
leaf_value=0.0069867194085598099 -0.013294791552017685 0.003985681417443228 0.019271247454025836 -0.0036713409784561307
leaf_weight=2611.9848345518112 2178.1932496502995 3856.5110837966204 465.88383946567774 3928.8310762867332
leaf_count=13444 13254 22177 2080 17414
internal_value=0 -0.0179223 -0.0523067 -0.071606
internal_weight=0 10429.4 6572.91 6107.02
internal_count=68369 54925 32748 30668
shrinkage=0.1


Tree=51
num_leaves=5
num_cat=0
split_feature=3 8 4 3
split_gain=14.4195 13.8106 12.7999 22.8111
threshold=54.750000000000007 1.0000000180025095e-35 124.50000000000001 98.500000000000014
decision_type=2 2 2 2
left_child=-1 -2 3 -3
right_child=1 2 -4 -5
leaf_value=-0.015765851911139824 0.0073119927080005313 -0.0050004567889028288 0.0035432214940289159 0.028454482614982204
leaf_weight=554.04373676329851 2511.619366042316 5939.7619714662433 3806.4379061460495 205.6037995070219
leaf_count=3262 12878 29414 21901 914
internal_value=0 0.0067585 -0.00968993 -0.0381567
internal_weight=0 12463.4 9951.8 6145.37
internal_count=68369 65107 52229 30328
shrinkage=0.1


Tree=52
num_leaves=5
num_cat=0
split_feature=0 0 7 5
split_gain=14.0528 11.9695 12.1621 15.4938
threshold=40.500000000000007 62.500000000000007 1.0000000180025095e-35 89.500000000000014
decision_type=2 2 2 2
left_child=-1 2 -2 -4
right_child=1 -3 3 -5
leaf_value=-0.017978503083425298 0.00043324196003158299 0.011050127104455805 -0.025217865919929458 0.0077802691726902122
leaf_weight=418.53659992665052 10971.617962792516 1002.9738459959626 411.17894896864891 196.18132725358009
leaf_count=3059 56907 5149 2084 1170
internal_value=0 0.00579338 -0.0030311 -0.140562
internal_weight=0 12582 11579 607.36
internal_count=68369 65310 60161 3254
shrinkage=0.1


Tree=53
num_leaves=5
num_cat=0
split_feature=4 6 4 10
split_gain=12.6055 11.9733 16.7152 21.3182
threshold=109.50000000000001 1.0000000180025095e-35 138.50000000000003 26.488523975574783
decision_type=2 2 2 2
left_child=-1 -2 3 -3
right_child=1 2 -4 -5
leaf_value=-0.014399406773002669 0.0016282241415889855 -0.031620089371369731 0.011964829813810437 0.00023803397335115043
leaf_weight=579.0369014069438 11354.812866874039 435.07451771199703 256.07718876004219 366.12257968634367
leaf_count=3752 58905 2238 1801 1673
internal_value=0 0.00655817 -0.0946306 -0.167251
internal_weight=0 12412.1 1057.27 801.197
internal_count=68369 64617 5712 3911
shrinkage=0.1


Tree=54
num_leaves=5
num_cat=0
split_feature=10 0 1 4
split_gain=11.9369 10.7439 17.5933 13.8484
threshold=20.230289366720058 61.500000000000007 1.0000000180025095e-35 149.50000000000003
decision_type=2 2 2 2
left_child=-1 3 -3 -2
right_child=1 2 -4 -5
leaf_value=-0.018109882291246965 -0.0017288969112579603 -0.0046701967752970043 0.015800393089338012 0.011288335199764778
leaf_weight=351.47112700343132 10020.245203368366 656.62038416415453 1068.5204113721848 883.7588422447443
leaf_count=2152 50541 3297 5483 6896
internal_value=0 0.00492221 0.0783165 -0.00641903
internal_weight=0 12629.1 1725.14 10904
internal_count=68369 66217 8780 57437
shrinkage=0.1


Tree=55
num_leaves=5
num_cat=0
split_feature=0 8 9 10
split_gain=11.1348 10.4199 10.9257 13.6662
threshold=40.500000000000007 1.0000000180025095e-35 43.500000000000007 29.410746892110513
decision_type=2 2 2 2
left_child=-1 2 3 -2
right_child=1 -3 -4 -5
leaf_value=-0.016087718913385299 0.0054927029387643227 -0.0008986880476926115 -0.0026404028847545856 0.026986643088276936
leaf_weight=414.043706163764 1257.3773555159569 10031.993603095412 850.66328527033329 410.68943694233894
leaf_count=3059 5895 52473 5105 1837
internal_value=0 0.00518014 0.0628012 0.110149
internal_weight=0 12550.7 2518.73 1668.07
internal_count=68369 65310 12837 7732
shrinkage=0.1


Tree=56
num_leaves=5
num_cat=0
split_feature=3 7 3 9
split_gain=10.5358 10.3436 12.6166 9.23772
threshold=51.250000000000007 1.0000000180025095e-35 61.100000000000009 39.500000000000007
decision_type=2 2 2 2
left_child=-1 3 -3 -2
right_child=1 2 -4 -5
leaf_value=-0.019013542065212424 -0.0072582528610617971 -0.054122651016161288 -0.0065000501951200523 0.0020401062810906962
leaf_weight=282.35397670418024 1171.9600007161498 62.254709228873253 598.49677738547325 10849.056971102953
leaf_count=1719 6296 361 3245 56748
internal_value=0 0.00410748 -0.116997 0.0110562
internal_weight=0 12681.8 660.751 12021
internal_count=68369 66650 3606 63044
shrinkage=0.1


Tree=57
num_leaves=5
num_cat=0
split_feature=5 0 2 0
split_gain=10.1547 11.1294 10.3705 8.914
threshold=78.500000000000014 47.500000000000007 164.50000000000003 48.500000000000007
decision_type=2 2 2 2
left_child=1 -1 -3 -4
right_child=-2 2 3 -5
leaf_value=-0.018110737726103113 0.0013211978228890235 -0.0086954936870704738 0.042341680181126259 0.002748202252148519
leaf_weight=569.09084547311068 10525.853053256869 1035.0063842684031 61.144219011068344 767.65748152136803
leaf_count=4281 54763 5220 359 3746
internal_value=0 -0.0584299 -0.0190347 0.0619912
internal_weight=0 2432.9 1863.81 828.802
internal_count=68369 13606 9325 4105
shrinkage=0.1


Tree=58
num_leaves=5
num_cat=0
split_feature=0 4 3 1
split_gain=9.292 18.8407 14.2786 12.5511
threshold=54.500000000000007 138.50000000000003 59.650000000000006 1.0000000180025095e-35
decision_type=2 2 2 2
left_child=1 2 -1 -2
right_child=3 -3 -4 -5
leaf_value=-0.019313328191498762 -0.003401796819857405 0.0088524892433746484 -0.0031922668374419604 0.0059357075737979884
leaf_weight=632.8550483956933 2145.7778358832002 1154.8605953082442 4835.508229739964 4182.1388044506311
leaf_count=4199 10604 8137 24898 20531
internal_value=0 -0.0263772 -0.0512584 0.0271932
internal_weight=0 6623.22 5468.36 6327.92
internal_count=68369 37234 29097 31135
shrinkage=0.1


Tree=59
num_leaves=5
num_cat=0
split_feature=0 3 6 4
split_gain=8.49797 11.2949 12.0363 11.3483
threshold=62.500000000000007 73.100000000000009 1.0000000180025095e-35 118.50000000000001
decision_type=2 2 2 2
left_child=1 2 3 -1
right_child=-2 -3 -4 -5
leaf_value=-0.010926427868923302 0.0088439553253436224 0.0025520609361555503 -0.019629741348768145 -0.00011223631294822472
leaf_weight=1233.1071695387363 994.65939645469189 5462.6070681139827 439.25835787504911 4801.1931548938155
leaf_count=7826 5149 28629 2514 24251
internal_value=0 -0.0076211 -0.0360743 -0.0237906
internal_weight=0 11936.2 6473.56 6034.3
internal_count=68369 63220 34591 32077
shrinkage=0.1


Tree=60
num_leaves=5
num_cat=0
split_feature=8 4 3 10
split_gain=8.35662 8.79067 20.3792 10.211
threshold=1.0000000180025095e-35 126.50000000000001 91.500000000000014 27.839054142142952
decision_type=2 2 2 2
left_child=-1 2 -2 -3
right_child=1 3 -4 -5
leaf_value=0.0050430373505124353 -0.0051555067048041888 0.0077299678215464228 0.016338050261114633 -0.0025239981827771436
leaf_weight=2598.0518950968981 6033.6916031315923 1886.0689285323024 467.15163930505514 1933.4046507626772
leaf_count=13444 30668 10553 2080 11624
internal_value=0 -0.0129869 -0.0355516 0.0245893
internal_weight=0 10320.3 6500.84 3819.47
internal_count=68369 54925 32748 22177
shrinkage=0.1


Tree=61
num_leaves=5
num_cat=0
split_feature=0 9 10 8
split_gain=7.96002 9.41528 7.18436 6.77598
threshold=40.500000000000007 50.500000000000007 24.925324121418203 1.0000000180025095e-35
decision_type=2 2 2 2
left_child=1 2 -1 -2
right_child=3 -3 -4 -5
leaf_value=-0.035513309817733492 0.0050858955806678992 0.026741565737824519 -0.0050279756725469743 -0.00070836404889086917
leaf_weight=159.91241139173508 2513.0211382955313 42.050885505974293 204.83823742717505 9985.713591620326
leaf_count=1394 12837 251 1414 52473
internal_value=0 -0.137282 -0.194431 0.00432339
internal_weight=0 406.802 364.751 12498.7
internal_count=68369 3059 2808 65310
shrinkage=0.1


Tree=62
num_leaves=5
num_cat=0
split_feature=7 5 3 10
split_gain=7.49999 8.9856 8.10966 7.63014
threshold=1.0000000180025095e-35 98.500000000000014 51.250000000000007 26.442175906859596
decision_type=2 2 2 2
left_child=2 3 -1 -2
right_child=1 -3 -4 -5
leaf_value=-0.016407196067280558 -0.026611293600152536 0.026681332607511023 0.00095798362438355975 -0.0029380870948144274
leaf_weight=270.73358173668385 273.12317258864641 51.524126805365086 11966.576261356473 338.76424735039473
leaf_count=1674 1531 371 63044 1749
internal_value=0 -0.103482 0.00543829 -0.141015
internal_weight=0 663.412 12237.3 611.887
internal_count=68369 3651 64718 3280
shrinkage=0.1


Tree=63
num_leaves=5
num_cat=0
split_feature=10 4 2 0
split_gain=7.06419 12.8987 9.83701 8.35784
threshold=35.256234542479469 122.50000000000001 170.50000000000003 62.500000000000007
decision_type=2 2 2 2
left_child=3 2 -2 -1
right_child=1 -3 -4 -5
leaf_value=-0.0014772399082071252 0.016062734679192694 -0.00086545021060053086 0.077748783195301915 0.0084652686893587053
leaf_weight=11010.376053728163 368.90784744918346 581.64843787252903 29.238567471504211 907.34759445488453
leaf_count=58344 1615 3646 127 4637
internal_value=0 0.0812799 0.219577 -0.00691702
internal_weight=0 979.795 398.146 11917.7
internal_count=68369 5388 1742 62981
shrinkage=0.1


Tree=64
num_leaves=5
num_cat=0
split_feature=4 6 10 4
split_gain=6.69568 6.20136 13.5677 16.0704
threshold=99.500000000000014 1.0000000180025095e-35 26.185690935609717 140.50000000000003
decision_type=2 2 2 2
left_child=-1 -2 3 -3
right_child=1 2 -4 -5
leaf_value=-0.020844403192703437 0.00093093423011796463 -0.024206598183380421 0.0034871133764913819 0.035414347009157264
leaf_weight=149.30686569213867 11668.418549612164 482.0183155015111 552.23085571825504 43.035716325044632
leaf_count=1058 61363 2660 2968 320
internal_value=0 0.00236093 -0.0697797 -0.185384
internal_weight=0 12745.7 1077.28 525.054
internal_count=68369 67311 5948 2980
shrinkage=0.1


Tree=65
num_leaves=5
num_cat=0
split_feature=0 4 10 4
split_gain=6.47205 9.93869 5.77391 9.68673
threshold=41.500000000000007 134.50000000000003 33.666031340795755 120.50000000000001
decision_type=2 2 2 2
left_child=1 -1 -2 -4
right_child=2 -3 3 -5
leaf_value=-0.017536465550899997 -0.00029928433402132566 0.018703917695215646 0.016081958069141405 -0.0003293361510967375
leaf_weight=426.49005961418152 10980.714954502881 81.224421739578247 599.98341432213783 801.14676999300718
leaf_count=3310 56937 501 2577 5044
internal_value=0 -0.110398 0.00445306 0.0649341
internal_weight=0 507.714 12381.8 1401.13
internal_count=68369 3811 64558 7621
shrinkage=0.1


Tree=66
num_leaves=5
num_cat=0
split_feature=10 0 8 9
split_gain=5.90799 6.11865 5.60715 9.14171
threshold=20.230289366720058 55.500000000000007 1.0000000180025095e-35 46.500000000000007
decision_type=2 2 2 2
left_child=1 -1 3 -2
right_child=2 -3 -4 -5
leaf_value=-0.024636978057672489 0.0087963534230795556 0.00031520607427441057 -0.00069246288248121389 -0.003795986560313748
leaf_weight=192.50814520567656 1705.5609152987599 149.14614862203598 10011.431875616312 826.55520664900541
leaf_count=1423 8040 729 53140 5037
internal_value=0 -0.129242 0.00343815 0.0456151
internal_weight=0 341.654 12543.5 2532.12
internal_count=68369 2152 66217 13077
shrinkage=0.1


Tree=67
num_leaves=5
num_cat=0
split_feature=0 5 0 1
split_gain=5.75636 11.2384 16.1744 8.8958
threshold=56.500000000000007 89.500000000000014 48.500000000000007 1.0000000180025095e-35
decision_type=2 2 2 2
left_child=1 -1 -3 -2
right_child=3 2 -4 -5
leaf_value=-0.0036847384520493861 -0.0030509109040803197 0.018794258405260413 -0.0010989672432961822 0.0058921242964932001
leaf_weight=6257.9844648763537 1667.1324208751321 589.82442053407431 1230.6732739880681 3140.707341067493
leaf_count=33369 8258 3596 7616 15530
internal_value=0 -0.0164346 0.0519426 0.027254
internal_weight=0 8078.48 1820.5 4807.84
internal_count=68369 44581 11212 23788
shrinkage=0.1


Tree=68
num_leaves=5
num_cat=0
split_feature=7 3 9 5
split_gain=5.55466 7.84988 6.42643 9.21238
threshold=1.0000000180025095e-35 61.100000000000009 39.500000000000007 85.500000000000014
decision_type=2 2 2 2
left_child=2 -2 3 -1
right_child=1 -3 -4 -5
leaf_value=-0.012229924802002844 -0.041413526434092324 -0.0045797077626188098 0.0012555396883822561 0.0063002503344808435
leaf_weight=846.85612121969461 66.13504958152771 592.75375742465258 11002.816040292382 364.57835211604834
leaf_count=5097 406 3245 57994 1627
internal_value=0 -0.0893465 0.00469792 -0.0639107
internal_weight=0 658.889 12214.3 1211.43
internal_count=68369 3651 64718 6724
shrinkage=0.1


Tree=69
num_leaves=5
num_cat=0
split_feature=0 9 10 0
split_gain=5.26866 7.06559 5.6529 4.39406
threshold=40.500000000000007 50.500000000000007 24.925324121418203 62.500000000000007
decision_type=2 2 2 2
left_child=1 2 -1 -2
right_child=3 -3 -4 -5
leaf_value=-0.031059837950469224 -0.0001786119108374584 0.023760021916289301 -0.0034929648279830167 0.0067468044194843079
leaf_weight=153.23697634413838 11484.865331456065 41.122944891452789 201.7735540419817 986.8346229493618
leaf_count=1394 60161 251 1414 5149
internal_value=0 -0.113233 -0.16444 0.0034559
internal_weight=0 396.133 355.011 12471.7
internal_count=68369 3059 2808 65310
shrinkage=0.1


Tree=70
num_leaves=5
num_cat=0
split_feature=3 0 7 3
split_gain=5.01525 6.40981 5.08909 7.74743
threshold=51.250000000000007 45.500000000000007 1.0000000180025095e-35 61.100000000000009
decision_type=2 2 2 2
left_child=1 -1 -2 -4
right_child=2 -3 3 -5
leaf_value=-0.052588376393650008 0.00076990543605679395 -0.0056489908639787692 -0.042415536481847808 -0.0041205586682163476
leaf_weight=35.020027320832014 11937.051345981658 238.25859835743904 59.16146183013916 592.53489925712347
leaf_count=372 63044 1347 361 3245
internal_value=0 -0.133409 0.00274961 -0.0826793
internal_weight=0 273.279 12588.7 651.696
internal_count=68369 1719 66650 3606
shrinkage=0.1


Tree=71
num_leaves=5
num_cat=0
split_feature=5 0 10 2
split_gain=4.58058 6.75897 9.19186 6.76104
threshold=78.500000000000014 45.500000000000007 24.489795918367353 164.50000000000003
decision_type=2 2 2 2
left_child=1 2 -1 -3
right_child=-2 3 -4 -5
leaf_value=-0.032788387422328126 0.00087739313847719561 -0.0067704019782361584 -0.00076781338883168224 0.0048238970036391668
leaf_weight=176.49348288029432 10463.148143101484 1101.7360639125109 221.88986564427614 896.87885195761919
leaf_count=1682 54763 5738 1635 4551
internal_value=0 -0.039658 -0.158877 -0.0141008
internal_weight=0 2397 398.383 1998.61
internal_count=68369 13606 3317 10289
shrinkage=0.1


Tree=72
num_leaves=5
num_cat=0
split_feature=6 4 10 7
split_gain=4.38838 10.3902 11.9998 8.22883
threshold=1.0000000180025095e-35 149.50000000000003 26.185690935609717 1.0000000180025095e-35
decision_type=2 2 2 2
left_child=-1 2 3 -2
right_child=1 -3 -4 -5
leaf_value=0.00053295027040486237 -0.011100789015999278 0.021721906200849052 0.00085233971881014566 -0.042075482112864923
leaf_weight=11773.84139477089 347.41667466983199 110.2642033547163 485.22346444427967 137.85650729760528
leaf_count=62343 1919 875 2425 807
internal_value=0 -0.0611556 -0.0966341 -0.20763
internal_weight=0 1080.76 970.497 485.273
internal_count=68369 6026 5151 2726
shrinkage=0.1


Tree=73
num_leaves=5
num_cat=0
split_feature=4 10 10 4
split_gain=4.27327 4.74666 4.29676 10.3448
threshold=99.500000000000014 21.675458464711102 35.256234542479469 122.50000000000001
decision_type=2 2 2 2
left_child=1 -1 -2 -4
right_child=2 -3 3 -5
leaf_value=-0.050317557110116755 -0.00033094801985657398 -0.0037374279917343082 0.019082722066137016 -0.0014393154756981346
leaf_weight=31.670195087790489 11733.038714427501 113.19784450531006 393.12005758285522 579.60949984937906
leaf_count=293 61955 765 1710 3646
internal_value=0 -0.169141 0.00173644 0.0656541
internal_weight=0 144.868 12705.8 972.73
internal_count=68369 1058 67311 5356
shrinkage=0.1


Tree=74
num_leaves=5
num_cat=0
split_feature=8 9 10 5
split_gain=4.21595 7.29068 8.72039 9.1721
threshold=1.0000000180025095e-35 43.500000000000007 29.410746892110513 99.500000000000014
decision_type=2 2 2 2
left_child=1 2 -1 -4
right_child=-2 -3 3 -5
leaf_value=0.0030349823121259569 -0.00093952854261747897 -0.0036725600264344242 0.023860169585051227 -0.036279555514645255
leaf_weight=1303.992797717452 10259.986224543303 864.62647053599358 401.37851787358522 20.298412844538689
leaf_count=6291 54925 5238 1777 138
internal_value=0 0.0357254 0.073856 0.199724
internal_weight=0 2590.3 1725.67 421.677
internal_count=68369 13444 8206 1915
shrinkage=0.1


Tree=75
num_leaves=5
num_cat=0
split_feature=0 4 2 1
split_gain=4.14161 13.73 9.44776 7.65833
threshold=52.500000000000007 134.50000000000003 158.50000000000003 1.0000000180025095e-35
decision_type=2 2 2 2
left_child=1 -1 -3 -2
right_child=3 2 -4 -5
leaf_value=-0.0046714809204741079 -0.0029094874634061772 -0.01000699421247607 0.014247107678467919 0.0037078912983933205
leaf_weight=4227.4826547019184 2605.4546107500792 188.65767718851566 715.04389224946499 5115.9962866455317
leaf_count=23624 13004 1328 5042 25371
internal_value=0 -0.0223019 0.0881785 0.0143377
internal_weight=0 5131.18 903.702 7721.45
internal_count=68369 29994 6370 38375
shrinkage=0.1


Tree=76
num_leaves=5
num_cat=0
split_feature=0 1 10 3
split_gain=3.92749 11.4573 7.36952 6.82963
threshold=61.500000000000007 1.0000000180025095e-35 33.205837346033086 84.950000000000017
decision_type=2 2 2 2
left_child=-1 -2 -3 -4
right_child=1 2 3 -5
leaf_value=-0.00072326251711028657 -0.0055228338029679963 0.014845316418901355 -0.037038962058044883 0.0036921771361256121
leaf_weight=11089.821795552969 674.3595709130168 881.32416065782309 49.645548813045025 143.43672055006027
leaf_count=59386 3389 4449 293 852
internal_value=0 0.0437103 0.108724 -0.0559735
internal_weight=0 1748.77 1074.41 193.082
internal_count=68369 8983 5594 1145
shrinkage=0.1


Tree=77
num_leaves=5
num_cat=0
split_feature=3 10 0 8
split_gain=3.83649 6.39688 4.65756 3.91665
threshold=54.750000000000007 23.734273408202675 55.500000000000007 1.0000000180025095e-35
decision_type=2 2 2 2
left_child=1 2 -1 -2
right_child=3 -3 -4 -5
leaf_value=-0.020947546986655002 0.0038841711851179297 0.029692604090562069 -0.00016397802942509112 -0.00053994966777263348
leaf_weight=259.16680302098393 2492.7800372987986 33.634591460227966 237.1049460619688 9813.0854114592075
leaf_count=1929 12878 172 1161 52229
internal_value=0 -0.083328 -0.117148 0.00331315
internal_weight=0 529.906 496.272 12305.9
internal_count=68369 3262 3090 65107
shrinkage=0.1


Tree=78
num_leaves=5
num_cat=0
split_feature=0 9 0 0
split_gain=3.64265 5.65046 4.60392 16.4245
threshold=40.500000000000007 50.500000000000007 49.500000000000007 51.500000000000007
decision_type=2 2 2 2
left_child=1 -1 -2 -4
right_child=2 -3 3 -5
leaf_value=-0.014217969156499536 0.0040562978431360266 0.021857325574709988 -0.011721280000045613 0.00079142652506214786
leaf_weight=348.79911904409528 2570.4210662804544 40.515278868377209 1186.2515601143241 8687.0162260383368
leaf_count=2808 15303 251 6479 43528
internal_value=0 -0.0951209 0.00271186 -0.00683201
internal_weight=0 389.314 12443.7 9873.27
internal_count=68369 3059 65310 50007
shrinkage=0.1


Tree=79
num_leaves=5
num_cat=0
split_feature=4 10 10 3
split_gain=3.49821 3.96172 4.10038 5.96
threshold=99.500000000000014 21.675458464711102 26.735202066169734 65.750000000000014
decision_type=2 2 2 2
left_child=1 -1 3 -3
right_child=-2 2 -4 -5
leaf_value=-0.046750454058876942 0.00015427001970393399 -0.0073392024367250862 -0.027114958047141632 0.048483497741889682
leaf_weight=30.287200342863798 12686.866493631154 42.94554740935564 46.063767530024052 23.689082928001881
leaf_count=293 67311 335 274 156
internal_value=0 -0.154044 -0.0320479 0.0927298
internal_weight=0 142.986 112.698 66.6346
internal_count=68369 1058 765 491
shrinkage=0.1


Tree=80
num_leaves=5
num_cat=0
split_feature=3 4 10 2
split_gain=3.42429 10.8999 5.87505 7.97434
threshold=91.500000000000014 122.50000000000001 34.857943372340472 170.50000000000003
decision_type=2 2 2 2
left_child=-1 2 -2 -4
right_child=1 -3 3 -5
leaf_value=-0.00058986483534109453 0.0027156484102767772 -0.0025312875507161616 0.016876752213467988 0.070152814771273969
leaf_weight=11457.23873854056 261.18619445711374 798.11120521277189 276.5528529509902 35.646699249744415
leaf_count=60896 1170 4941 1208 154
internal_value=0 0.0469141 0.152521 0.24605
internal_weight=0 1371.5 573.386 312.2
internal_count=68369 7473 2532 1362
shrinkage=0.1


Tree=81
num_leaves=5
num_cat=0
split_feature=4 5 0 3
split_gain=3.50785 6.58962 8.52962 8.90272
threshold=149.50000000000003 91.500000000000014 54.500000000000007 63.910000000000004
decision_type=2 2 2 2
left_child=-1 -2 -3 -4
right_child=1 2 3 -5
leaf_value=-0.00052156491774079262 0.011967880162576461 0.01112371866972587 0.027798069363799194 -0.024094058143696542
leaf_weight=11740.353263691068 643.57557576149702 197.30934735387564 30.844097070395947 217.99601264297962
leaf_count=59612 5094 1614 236 1813
internal_value=0 0.054013 -0.0338483 -0.16139
internal_weight=0 1089.73 446.149 248.84
internal_count=68369 8757 3663 2049
shrinkage=0.1


Tree=82
num_leaves=5
num_cat=0
split_feature=0 10 5 0
split_gain=3.28798 8.87024 6.59332 6.13707
threshold=42.500000000000007 28.354222361420273 88.500000000000014 49.500000000000007
decision_type=2 2 2 2
left_child=1 2 -1 -2
right_child=3 -3 -4 -5
leaf_value=-0.017360091143858086 0.0053652129053236583 0.0084721425651711462 0.0098976426281629209 -0.00059083383734543098
leaf_weight=517.42153157293797 2083.0763073451817 267.93819370120764 89.09747926145792 9868.1952273920178
leaf_count=4197 11979 1654 532 50007
internal_value=0 -0.0591939 -0.128067 0.00421982
internal_weight=0 874.457 606.519 11951.3
internal_count=68369 6383 4729 61986
shrinkage=0.1


Tree=83
num_leaves=5
num_cat=0
split_feature=6 3 9 4
split_gain=3.20258 9.20181 6.9683 5.88653
threshold=1.0000000180025095e-35 62.600000000000009 49.500000000000007 149.50000000000003
decision_type=2 2 2 2
left_child=-1 2 -2 -3
right_child=1 3 -4 -5
leaf_value=0.00047000947979132507 -0.045186691720030904 -0.0043826568421698143 0 0.02084934118008586
leaf_weight=11748.757251225412 89.622841015458107 841.19684806466103 44.598178587853909 98.807804457843304
leaf_count=62343 586 4378 253 809
internal_value=0 -0.0522645 -0.295261 -0.0133412
internal_weight=0 1074.23 134.221 940.005
internal_count=68369 6026 839 5187
shrinkage=0.1


Tree=84
num_leaves=5
num_cat=0
split_feature=0 5 4 9
split_gain=3.11138 9.07301 8.30831 6.59393
threshold=62.500000000000007 91.500000000000014 169.50000000000003 49.500000000000007
decision_type=2 2 2 2
left_child=-1 -2 3 -3
right_child=1 2 -4 -5
leaf_value=-0.00045665417554231627 0.0082202882283617506 -0 0.018982624769040977 -0.077210914192712421
leaf_weight=11837.389738768339 918.60828489810228 17.775185793638229 15.295913487672804 30.295440100133419
leaf_count=63220 4641 115 132 261
internal_value=0 0.053923 -0.292932 -0.510503
internal_weight=0 981.975 63.3665 48.0706
internal_count=68369 5149 508 376
shrinkage=0.1


Tree=85
num_leaves=5
num_cat=0
split_feature=4 3 9 10
split_gain=3.03972 5.45822 4.94191 3.73553
threshold=103.50000000000001 69.65000000000002 38.500000000000007 21.792900166602596
decision_type=2 2 2 2
left_child=1 2 -1 -4
right_child=-2 -3 3 -5
leaf_value=-0.023816287420956199 0.00031341919422892852 0.0030070584025142129 -0.024757135218122492 0.020523588985948013
leaf_weight=227.02434112876654 12287.231646023691 231.56622674316168 21.248439855873585 51.196538753807545
leaf_count=1759 64722 1342 198 348
internal_value=0 -0.0739206 -0.164256 0.0258005
internal_weight=0 531.036 299.469 72.445
internal_count=68369 3647 2305 546
shrinkage=0.1


Tree=86
num_leaves=5
num_cat=0
split_feature=0 4 0 0
split_gain=2.93695 10.841 10.3364 13.5342
threshold=45.500000000000007 134.50000000000003 49.500000000000007 50.500000000000007
decision_type=2 2 2 2
left_child=1 -1 -2 -4
right_child=2 -3 3 -5
leaf_value=-0.0078621298936377444 0.0086098534359304105 0.01460179421171573 -0.011973843719859913 0.00061522912825236415
leaf_weight=1308.1014210134745 1397.6028559058905 246.47329092770815 938.36182767152786 8924.972227178514
leaf_count=8869 7799 1694 5164 44843
internal_value=0 -0.0407512 0.00557485 -0.00553853
internal_weight=0 1554.57 11260.9 9863.33
internal_count=68369 10563 57806 50007
shrinkage=0.1


Tree=87
num_leaves=5
num_cat=0
split_feature=3 0 7 5
split_gain=2.83702 4.62026 3.21845 5.99094
threshold=51.250000000000007 45.500000000000007 1.0000000180025095e-35 98.500000000000014
decision_type=2 2 2 2
left_child=1 -1 -2 -4
right_child=2 -3 3 -5
leaf_value=-0.045082140717863116 0.00061423096372612224 -0.0035615891145535333 -0.009808358404218398 0.02395998961596264
leaf_weight=31.75555195659399 11895.077720984817 235.02773792669177 595.92592618241906 50.061290338635445
leaf_count=372 63044 1347 3237 369
internal_value=0 -0.101455 0.00215831 -0.0660034
internal_weight=0 266.783 12541.1 645.987
internal_count=68369 1719 66650 3606
shrinkage=0.1


Tree=88
num_leaves=5
num_cat=0
split_feature=8 9 3 0
split_gain=2.71041 6.65522 6.39557 7.48459
threshold=1.0000000180025095e-35 46.500000000000007 62.350000000000001 46.500000000000007
decision_type=2 2 2 2
left_child=1 2 3 -1
right_child=-2 -3 -4 -5
leaf_value=-0.035813080522962913 -0.00073725975618382984 -0.0042038420047207491 0.0095052244093469726 0.00085460882854720879
leaf_weight=62.456241630017757 10221.601659405977 837.95665907114744 1409.9391126707196 273.73597665131092
leaf_count=483 54925 5123 6539 1299
internal_value=0 0.0288581 0.0647032 -0.0529574
internal_weight=0 2584.09 1746.13 336.192
internal_count=68369 13444 8321 1782
shrinkage=0.1


Tree=89
num_leaves=5
num_cat=0
split_feature=4 10 0 6
split_gain=2.61204 5.15191 6.13539 5.0179
threshold=149.50000000000003 27.119042088447681 51.500000000000007 1.0000000180025095e-35
decision_type=2 2 2 2
left_child=3 -2 -3 -1
right_child=1 2 -4 -5
leaf_value=0.00014759972077783693 0.01328635065450702 0.016201165679993804 -0.006214422087213174 -0.0073563228823496241
leaf_weight=10760.653558969498 423.03625177592039 156.23511189967394 504.76693574339151 962.3332243040204
leaf_count=54461 3290 1300 4167 5151
internal_value=0 0.0468042 -0.0038821 -0.00443243
internal_weight=0 1084.04 661.002 11723
internal_count=68369 8757 5467 59612
shrinkage=0.1


Tree=90
num_leaves=5
num_cat=0
split_feature=3 9 10 2
split_gain=2.63305 9.21621 4.83382 7.39721
threshold=91.500000000000014 40.500000000000007 34.857943372340472 170.50000000000003
decision_type=2 2 2 2
left_child=-1 2 -2 -4
right_child=1 -3 3 -5
leaf_value=-0.00050166803834688809 0.0017936230223016783 -0.0039214383761288774 0.012829360783285323 0.055965579930656831
leaf_weight=11430.744480077177 314.18478763848543 668.16909762471914 338.41033618152142 51.228718973696232
leaf_count=60896 1432 4286 1524 231
internal_value=0 0.0412973 0.122037 0.197108
internal_weight=0 1371.99 703.824 389.639
internal_count=68369 7473 3187 1755
shrinkage=0.1


Tree=91
num_leaves=5
num_cat=0
split_feature=0 4 2 9
split_gain=2.62875 6.77256 8.94368 6.85982
threshold=54.500000000000007 138.50000000000003 158.50000000000003 41.500000000000007
decision_type=2 2 2 2
left_child=1 3 -3 -1
right_child=-2 2 -4 -5
leaf_value=-0.0011440631946716133 0.0014572526986787945 -0.010475208442673146 0.010454686165696963 -0.010468543519242417
leaf_weight=4392.6617894992232 6292.8157342448831 249.23526075482368 878.40096392482519 990.29659461975098
leaf_count=24404 31135 1779 6358 4693
internal_value=0 -0.0140823 0.0553266 -0.0292333
internal_weight=0 6510.59 1127.64 5382.96
internal_count=68369 37234 8137 29097
shrinkage=0.1


Tree=92
num_leaves=5
num_cat=0
split_feature=0 9 2 0
split_gain=2.59637 2.59169 2.51183 6.20458
threshold=39.500000000000007 54.500000000000007 159.50000000000003 58.500000000000007
decision_type=2 2 2 2
left_child=1 -1 3 -2
right_child=2 -3 -4 -5
leaf_value=-0.033219846040424127 -0.00520444453170597 0.0057184043423167798 0.00094345312689924103 0.0040721400239321489
leaf_weight=43.460984036326408 2285.3669187650084 6.8132300972938529 9444.4920061826706 1014.1877236664295
leaf_count=358 12656 46 50078 5231
internal_value=0 -0.219989 0.000898775 -0.0225617
internal_weight=0 50.2742 12744 3299.55
internal_count=68369 404 67965 17887
shrinkage=0.1


Tree=93
num_leaves=5
num_cat=0
split_feature=9 5 3 7
split_gain=2.31853 8.96264 4.26562 3.86504
threshold=39.500000000000007 97.500000000000014 90.850000000000009 1.0000000180025095e-35
decision_type=2 2 2 2
left_child=1 2 -1 -2
right_child=3 -3 -4 -5
leaf_value=-0.0083066484570321238 0.00089371926163542303 0.029696434633143212 0.011888112389749163 -0.0074330765767281334
leaf_weight=1095.2930660918355 10948.308706950396 67.933020107448101 100.74855879694223 579.53421460464597
leaf_count=6355 57994 312 467 3241
internal_value=0 -0.0406069 -0.0631498 0.00445762
internal_weight=0 1263.97 1196.04 11527.8
internal_count=68369 7134 6822 61235
shrinkage=0.1


Tree=94
num_leaves=5
num_cat=0
split_feature=3 0 0 5
split_gain=2.19811 3.81129 2.70803 8.00514
threshold=51.250000000000007 45.500000000000007 62.500000000000007 91.500000000000014
decision_type=2 2 2 2
left_child=1 -1 -2 -4
right_child=2 -3 3 -5
leaf_value=-0.041367943191269164 -0.0002027585706805725 -0.0029135531523306656 0.0080758956053820583 -0.026866264442698313
leaf_weight=30.499442167580128 11566.887778196484 234.24661170691252 891.83701423555613 64.387750700116158
leaf_count=372 61610 1347 4534 506
internal_value=0 -0.0895996 0.00194369 0.0531264
internal_weight=0 264.746 12523.1 956.225
internal_count=68369 1719 66650 5040
shrinkage=0.1


Tree=95
num_leaves=5
num_cat=0
split_feature=8 9 0 3
split_gain=2.16136 5.40436 5.86319 5.64853
threshold=1.0000000180025095e-35 43.500000000000007 42.500000000000007 62.350000000000001
decision_type=2 2 2 2
left_child=1 2 -1 -4
right_child=-2 -3 3 -5
leaf_value=-0.013093421858513789 -0.00066063628001560666 -0.0036604336918338409 -0.0038598139277646933 0.01066203855894894
leaf_weight=134.80912845209241 10203.916573062539 860.87115669250488 299.84571739286184 1286.2130994424224
leaf_count=971 54925 5238 1483 5752
internal_value=0 0.0257645 0.058809 0.0771547
internal_weight=0 2581.74 1720.87 1586.06
internal_count=68369 13444 8206 7235
shrinkage=0.1


Tree=96
num_leaves=5
num_cat=0
split_feature=9 5 9 10
split_gain=2.09398 11.0031 3.39161 3.3169
threshold=74.500000000000014 68.500000000000014 92.500000000000014 23.873956653397386
decision_type=2 2 2 2
left_child=-1 3 -3 -2
right_child=1 2 -4 -5
leaf_value=-0.00018216339847818247 0 0.023361386158121653 -0.0088651433340189816 -0.076859360141239647
leaf_weight=12571.302686002105 4.5158588141202953 174.62205024063587 22.396097555756569 13.529261462390421
leaf_count=66718 28 1362 174 87
internal_value=0 0.0969756 0.180361 -0.555466
internal_weight=0 215.063 197.018 18.0451
internal_count=68369 1651 1536 115
shrinkage=0.1


Tree=97
num_leaves=5
num_cat=0
split_feature=3 0 10 4
split_gain=2.00252 5.59633 7.20936 5.73264
threshold=73.100000000000009 61.500000000000007 28.354222361420273 122.50000000000001
decision_type=2 2 2 2
left_child=1 2 -1 -3
right_child=-2 3 -4 -5
leaf_value=-0.0013254935583214011 0.0013353629049507858 -0 -0.015165453820378379 0.015914343818858263
leaf_weight=5555.9694804698229 5893.2015666216612 572.48762939870358 409.43667788803577 353.1150983646512
leaf_count=30485 31203 2356 2152 2173
internal_value=0 -0.0117454 -0.0233592 0.0595236
internal_weight=0 6891.01 5965.41 925.603
internal_count=68369 37166 32637 4529
shrinkage=0.1


Tree=98
num_leaves=5
num_cat=0
split_feature=0 0 0 0
split_gain=1.94649 2.35008 13.4874 10.3591
threshold=39.500000000000007 49.500000000000007 46.500000000000007 51.500000000000007
decision_type=2 2 2 2
left_child=-1 2 -2 -3
right_child=1 3 -4 -5
leaf_value=-0.019226576498600153 -0.0018309591577468705 -0.0094495355654674804 0.012872049116785113 0.00051480774777866824
leaf_weight=49.358867440372705 1996.4909986741841 1177.4395036920905 887.61753007769585 8668.2246153056622
leaf_count=404 13051 6479 4907 43528
internal_value=0 0.000625629 0.0259368 -0.00647368
internal_weight=0 12729.8 2884.11 9845.66
internal_count=68369 67965 17958 50007
shrinkage=0.1


Tree=99
num_leaves=5
num_cat=0
split_feature=4 9 10 10
split_gain=1.91806 3.32064 3.18693 3.77829
threshold=99.500000000000014 18.500000000000004 21.675458464711102 26.735202066169734
decision_type=2 2 2 2
left_child=2 -2 -1 -4
right_child=1 -3 3 -5
leaf_value=-0.040379660255780478 0.045448340055240344 2.8575792531782497e-05 0.011557629026561492 -0.024352866175284375
leaf_weight=28.025993619114161 12.985254734754561 12625.613726563752 65.48452327772975 45.150549910962582
leaf_count=293 64 67247 491 274
internal_value=0 0.00111613 -0.115815 -0.00588184
internal_weight=0 12638.6 138.661 110.635
internal_count=68369 67311 1058 765
shrinkage=0.1


end of trees

feature importances:
age=104
ap_hi=93
bmi=53
weight=42
ap_lo=27
diff=22
active=21
alco=12
smoke=11
height=8
gender=7

parameters:
[boosting: gbdt]
[objective: binary]
[metric: binary_logloss]
[tree_learner: serial]
[device_type: cpu]
[data: ]
[valid: ]
[num_iterations: 100]
[learning_rate: 0.1]
[num_leaves: 5]
[num_threads: -1]
[max_depth: -1]
[min_data_in_leaf: 20]
[min_sum_hessian_in_leaf: 0.001]
[bagging_fraction: 1]
[pos_bagging_fraction: 1]
[neg_bagging_fraction: 1]
[bagging_freq: 0]
[bagging_seed: 400]
[feature_fraction: 1]
[feature_fraction_bynode: 1]
[feature_fraction_seed: 30056]
[early_stopping_round: 0]
[first_metric_only: 0]
[max_delta_step: 0]
[lambda_l1: 3.16228]
[lambda_l2: 3.16228]
[min_gain_to_split: 0]
[drop_rate: 0.1]
[max_drop: 50]
[skip_drop: 0.5]
[xgboost_dart_mode: 0]
[uniform_drop: 0]
[drop_seed: 17869]
[top_rate: 0.2]
[other_rate: 0.1]
[min_data_per_group: 100]
[max_cat_threshold: 32]
[cat_l2: 10]
[cat_smooth: 10]
[max_cat_to_onehot: 4]
[top_k: 20]
[monotone_constraints: ]
[feature_contri: ]
[forcedsplits_filename: ]
[forcedbins_filename: ]
[refit_decay_rate: 0.9]
[cegb_tradeoff: 1]
[cegb_penalty_split: 0]
[cegb_penalty_feature_lazy: ]
[cegb_penalty_feature_coupled: ]
[verbosity: -1]
[max_bin: 255]
[max_bin_by_feature: ]
[min_data_in_bin: 3]
[bin_construct_sample_cnt: 200000]
[histogram_pool_size: -1]
[data_random_seed: 175]
[output_model: LightGBM_model.txt]
[snapshot_freq: -1]
[input_model: ]
[output_result: LightGBM_predict_result.txt]
[initscore_filename: ]
[valid_data_initscores: ]
[pre_partition: 0]
[enable_bundle: 1]
[max_conflict_rate: 0]
[is_enable_sparse: 1]
[sparse_threshold: 0.8]
[use_missing: 1]
[zero_as_missing: 0]
[two_round: 0]
[save_binary: 0]
[header: 0]
[label_column: ]
[weight_column: ]
[group_column: ]
[ignore_column: ]
[categorical_feature: ]
[predict_raw_score: 0]
[predict_leaf_index: 0]
[predict_contrib: 0]
[num_iteration_predict: -1]
[pred_early_stop: 0]
[pred_early_stop_freq: 10]
[pred_early_stop_margin: 10]
[convert_model_language: ]
[convert_model: gbdt_prediction.cpp]
[num_class: 1]
[is_unbalance: 0]
[scale_pos_weight: 1]
[sigmoid: 1]
[boost_from_average: 1]
[reg_sqrt: 0]
[alpha: 0.9]
[fair_c: 1]
[poisson_max_delta_step: 0.7]
[tweedie_variance_power: 1.5]
[max_position: 20]
[lambdamart_norm: 1]
[label_gain: ]
[metric_freq: 1]
[is_provide_training_metric: 0]
[eval_at: ]
[multi_error_top_k: 1]
[num_machines: 1]
[local_listen_port: 12400]
[time_out: 120]
[machine_list_filename: ]
[machines: ]
[gpu_platform_id: -1]
[gpu_device_id: -1]
[gpu_use_dp: 0]

end of parameters

pandas_categorical:[]
